Cufon.registerFont({"w":1092,"face":{"font-family":"DIN Medium","font-weight":500,"font-stretch":"normal","units-per-em":"2048","panose-1":"2 2 5 0 0 0 0 0 0 0","ascent":"1638","descent":"-410","x-height":"12","bbox":"-86 -2048 1997 432.05","underline-thickness":"70","underline-position":"-102","unicode-range":"U+0020-U+00FF"},"glyphs":{" ":{"w":492},"\u00d0":{"d":"1264,-729v-1,269,4,394,-111,536v-91,112,-227,192,-418,193r-506,0r0,-651r-151,0r0,-170r151,0r0,-637r512,0v218,-9,401,127,477,298v55,122,46,239,46,431xm1032,-446v12,-70,10,-490,-1,-560v-17,-103,-88,-189,-163,-226v-100,-49,-274,-24,-417,-30r0,441r282,0r0,170r-282,0r0,454r264,0v170,3,291,-94,317,-249","w":1401},"\u00f0":{"d":"925,-820v60,138,65,386,24,545v-43,167,-198,291,-400,287v-287,-6,-424,-202,-424,-522v0,-314,109,-512,403,-512v29,0,57,3,86,10r-92,-166r-237,0r0,-147r159,0r-79,-143r221,0r80,143r178,0r0,147r-103,0r105,193v33,61,58,117,79,165xm698,-233v75,-75,73,-243,64,-387v-8,-130,-83,-226,-213,-226v-105,0,-187,72,-202,172v-21,140,-26,362,54,441v78,77,221,77,297,0","w":1100},"\u00dd":{"d":"1104,-1458r-436,858r0,600r-222,0r0,-600r-436,-858r242,0r305,641r305,-641r242,0xm836,-1932r-228,332r-157,0r153,-332r232,0","w":1114},"\u00fd":{"d":"950,-1038r-458,1245v-44,127,-130,205,-289,205r-84,0r0,-189v57,1,122,1,149,-23v56,-47,78,-171,111,-249r-363,-989r222,0r247,731r242,-731r223,0xm758,-1559r-228,332r-157,0r153,-332r232,0","w":958},"\u00de":{"d":"1178,-912v43,105,43,249,0,353v-66,159,-216,264,-435,264r-331,0r0,295r-222,0r0,-1458r222,0r0,280v184,6,382,-20,523,34v115,44,198,121,243,232xm729,-494v153,2,258,-89,258,-241v0,-152,-105,-244,-258,-244r-317,0r0,485r317,0","w":1305},"\u00fe":{"d":"647,-1051v293,0,369,223,369,531v0,308,-75,532,-369,532v-129,0,-208,-41,-272,-118r0,526r-209,0r0,-1878r209,0r0,524v66,-78,140,-117,272,-117xm592,-174v188,0,215,-149,215,-346v0,-193,-28,-344,-215,-344v-187,0,-217,151,-217,344v0,194,30,346,217,346","w":1135},"\u00bd":{"d":"1335,-883v189,0,323,173,246,353v-12,28,-39,61,-74,102r-247,287r342,0r0,141r-531,0r0,-141r328,-381v76,-74,55,-222,-64,-219v-67,1,-110,37,-108,112r-156,0v-3,-152,113,-254,264,-254xm1204,-1458r-686,1458r-166,0r686,-1458r166,0xm418,-584r-158,0r0,-698r-178,156r0,-179r178,-153r158,0r0,874","w":1694},"\u00bc":{"d":"1573,-125r-82,0r0,125r-152,0r0,-125r-356,0r0,-145r301,-604r170,0r-301,604r186,0r0,-170r152,0r0,170r82,0r0,145xm1221,-1458r-686,1458r-166,0r686,-1458r166,0xm418,-584r-158,0r0,-698r-178,156r0,-179r178,-153r158,0r0,874","w":1655},"\u00b9":{"d":"418,-584r-158,0r0,-698r-178,156r0,-179r178,-153r158,0r0,874","w":567},"\u00be":{"d":"1647,-125r-82,0r0,125r-150,0r0,-125r-356,0r0,-145r299,-604r172,0r-301,604r186,0r0,-170r150,0r0,170r82,0r0,145xm1307,-1458r-686,1458r-166,0r686,-1458r166,0xm371,-1466v149,-3,266,102,266,249v0,86,-34,147,-102,183v76,40,114,106,114,198v0,200,-184,306,-381,248v-106,-31,-172,-109,-176,-243r158,0v-1,71,54,116,123,116v72,0,120,-50,119,-125v-1,-83,-55,-131,-148,-123r0,-135v86,7,136,-36,137,-112v1,-69,-46,-115,-110,-115v-65,0,-108,43,-111,106r-156,0v8,-154,110,-244,267,-247","w":1729},"\u00b3":{"d":"371,-1466v149,-3,266,102,266,249v0,86,-34,147,-102,183v76,40,114,106,114,198v0,200,-184,306,-381,248v-106,-31,-172,-109,-176,-243r158,0v-1,71,54,116,123,116v72,0,120,-50,119,-125v-1,-83,-55,-131,-148,-123r0,-135v86,7,136,-36,137,-112v1,-69,-46,-115,-110,-115v-65,0,-108,43,-111,106r-156,0v8,-154,110,-244,267,-247","w":741},"\u00b2":{"d":"358,-1466v190,0,322,172,246,352v-12,28,-39,61,-74,102r-247,287r342,0r0,141r-533,0r0,-141r330,-381v76,-74,55,-221,-64,-219v-65,1,-110,40,-108,113r-158,0v-3,-153,114,-254,266,-254","w":717},"\u00a6":{"d":"451,-893r-209,0r0,-717r209,0r0,717xm451,152r-209,0r0,-717r209,0r0,717","w":705},"\u00ad":{"d":"987,-471r-883,0r0,-195r883,0r0,195"},"\u00d7":{"d":"975,-270r-131,129r-299,-297r-297,297r-131,-129r299,-299r-299,-299r131,-131r297,299r299,-299r131,131r-299,299"},"!":{"d":"502,-1458r-45,1024r-164,0r-45,-1024r254,0xm489,0r-229,0r0,-223r229,0r0,223","w":680},"\"":{"d":"750,-1067r-207,0r0,-391r207,0r0,391xm367,-1067r-207,0r0,-391r207,0r0,391","w":909},"#":{"d":"1276,-872r-189,0r-40,254r161,0r0,192r-192,0r-68,426r-217,0r68,-426r-281,0r-65,426r-220,0r68,-426r-162,0r0,-192r193,0r41,-254r-166,0r0,-193r194,0r64,-401r219,0r-63,401r278,0r64,-401r217,0r-64,401r160,0r0,193xm868,-872r-278,0r-41,254r280,0","w":1376},"$":{"d":"111,-1042v0,-260,174,-398,417,-424r0,-185r168,0r0,183v175,11,289,68,391,163r-141,140v-69,-65,-159,-102,-268,-111r0,442r70,11v237,28,391,154,391,407v0,266,-191,397,-443,422r0,227r-168,0r0,-221v-215,-7,-353,-80,-467,-192r148,-146v88,89,182,129,338,140r0,-455v-252,-20,-436,-139,-436,-401xm547,-1274v-129,10,-221,93,-221,223v0,132,99,187,221,203r0,-426xm678,-190v137,-13,242,-82,242,-220v0,-149,-94,-203,-242,-215r0,435","w":1245},"%":{"d":"1319,-754v171,0,287,107,287,281r0,207v4,167,-123,280,-287,280v-164,0,-287,-113,-287,-280r0,-207v2,-174,116,-281,287,-281xm1288,-1458r-686,1458r-168,0r688,-1458r166,0xm406,-1473v163,-3,286,115,286,281r0,207v-3,174,-114,278,-286,278v-173,0,-287,-104,-287,-278r0,-207v2,-174,116,-278,287,-281xm1319,-125v89,0,129,-55,129,-147r0,-195v0,-92,-40,-147,-129,-147v-86,0,-129,49,-129,147r0,195v0,98,43,147,129,147xm406,-846v89,0,129,-54,129,-145r0,-195v0,-92,-40,-147,-129,-147v-87,0,-130,49,-130,147r0,195v0,97,43,145,130,145","w":1724},"&":{"d":"1303,-739v-6,192,-54,341,-146,448r244,291r-268,0r-119,-143v-109,86,-207,155,-404,155v-285,0,-478,-160,-471,-434v5,-226,142,-306,289,-412v-78,-95,-152,-166,-152,-313v0,-205,146,-323,357,-323v207,0,346,124,346,325v0,128,-71,197,-156,258v-1,0,-37,25,-106,74r307,367v56,-79,75,-159,78,-293r201,0xm633,-1288v-121,0,-181,130,-117,230v19,29,46,67,86,114r70,-47v71,-49,106,-99,106,-152v2,-80,-64,-145,-145,-145xm346,-426v-4,143,119,251,264,248v126,-3,201,-44,279,-113r-346,-411v-96,69,-193,124,-197,276","w":1495},"'":{"d":"367,-1067r-207,0r0,-391r207,0r0,391","w":526},"(":{"d":"530,51r-141,142r-65,-67v-90,-88,-148,-184,-148,-366r0,-979v-11,-226,102,-321,213,-432r141,142r-44,44v-64,62,-101,124,-101,259r0,954v-5,166,66,227,145,303","w":649},")":{"d":"262,-1206v1,-166,-60,-221,-143,-301r143,-144v145,157,213,188,213,432r0,979v-5,243,-68,277,-213,433r-143,-144v76,-78,143,-137,143,-301r0,-954","w":649},"*":{"d":"868,-954r-75,133r-228,-142r8,269r-153,0r8,-269r-227,142r-76,-133r235,-125r-235,-127r76,-133r227,141r-8,-266r153,0r-8,266r228,-141r75,133r-235,127","w":993},"+":{"d":"987,-461r-344,0r0,344r-194,0r0,-344r-345,0r0,-194r345,0r0,-342r194,0r0,342r344,0r0,194"},",":{"d":"397,123r-237,194r0,-555r237,0r0,361","w":557},"-":{"d":"735,-471r-598,0r0,-195r598,0r0,195","w":872},".":{"d":"410,0r-250,0r0,-250r250,0r0,250","w":569},"\/":{"d":"784,-1610r-583,1762r-201,0r584,-1762r200,0","w":778},"0":{"d":"545,12v-253,0,-420,-162,-420,-418r0,-647v2,-204,107,-331,257,-389v166,-63,374,-7,462,84v69,71,123,171,123,305r0,647v-4,258,-169,418,-422,418xm545,-174v134,0,213,-101,213,-238r0,-635v-1,-140,-76,-237,-213,-237v-137,0,-211,97,-211,237r0,635v-2,136,78,238,211,238"},"1":{"d":"727,0r-209,0r0,-1231r-285,250r0,-231r285,-246r209,0r0,1458"},"2":{"d":"555,-1470v258,4,422,153,422,409v0,157,-50,210,-137,316r-457,559r594,0r0,186r-848,0r0,-186r561,-682v52,-64,78,-129,78,-195v-2,-134,-78,-221,-213,-221v-130,0,-219,82,-215,225r-209,0v3,-199,106,-325,254,-382v51,-19,108,-29,170,-29"},"3":{"d":"774,-754v126,57,206,165,205,344v-2,272,-180,424,-447,424v-256,0,-445,-148,-446,-409r209,0v3,138,103,220,237,221v141,1,240,-96,238,-242v-2,-164,-101,-250,-278,-239r0,-183v167,10,256,-66,256,-221v0,-136,-86,-225,-216,-225v-130,0,-209,85,-219,209r-209,0v13,-195,113,-314,264,-371v51,-18,105,-27,164,-27v254,0,424,155,424,408v0,148,-61,252,-182,311"},"4":{"d":"1020,-219r-156,0r0,219r-202,0r0,-219r-590,0r0,-195r514,-1044r225,0r-512,1044r363,0r0,-340r202,0r0,340r156,0r0,195"},"5":{"d":"592,-971v278,0,389,198,389,484v0,315,-142,501,-430,501v-260,0,-407,-140,-422,-391r209,0v15,124,80,203,213,203v168,0,226,-130,221,-313v-5,-179,-43,-304,-213,-306v-109,-2,-181,52,-207,131r-190,0r0,-796r786,0r0,186r-598,0r0,385v54,-56,135,-84,242,-84"},"6":{"d":"547,12v-304,3,-483,-234,-419,-551v18,-90,56,-163,95,-243r332,-676r223,0r-313,627v99,-40,235,-25,322,29v109,67,192,199,190,370v-3,268,-163,441,-430,444xm545,-174v135,2,223,-111,223,-254v0,-140,-85,-252,-223,-252v-139,0,-224,106,-221,252v2,148,77,252,221,254"},"7":{"d":"997,-1272r-487,1272r-225,0r489,-1272r-444,0r0,230r-201,0r0,-416r868,0r0,186"},"8":{"d":"795,-754v109,69,202,170,200,342v-3,266,-185,424,-450,424v-263,0,-446,-158,-449,-424v-2,-168,93,-276,201,-342v-98,-62,-176,-155,-176,-313v0,-197,111,-319,258,-375v101,-37,231,-37,332,0v148,56,258,177,260,375v2,154,-78,251,-176,313xm545,-840v127,0,217,-93,217,-221v0,-125,-92,-223,-217,-223v-124,0,-215,99,-215,223v0,126,90,221,215,221xm545,-174v130,4,239,-111,239,-242v0,-131,-108,-243,-239,-243v-130,0,-244,112,-240,243v4,141,100,238,240,242"},"9":{"d":"545,-1470v267,0,432,167,432,436v0,150,-49,236,-109,358r-331,676r-224,0r314,-627v-35,15,-79,23,-131,23v-238,0,-381,-177,-381,-422v0,-268,163,-444,430,-444xm545,-778v138,0,225,-106,223,-252v-2,-149,-78,-252,-223,-254v-138,-2,-221,110,-221,254v0,138,84,252,221,252"},":":{"d":"461,-584r-248,0r0,-250r248,0r0,250xm461,0r-248,0r0,-250r248,0r0,250","w":621},";":{"d":"461,-584r-248,0r0,-250r248,0r0,250xm455,123r-238,194r0,-555r238,0r0,361","w":621},"<":{"d":"1995,-469r-1524,0r707,702r-269,0r-803,-800r803,-803r269,0r-707,702r1524,0r0,199","w":2103},"=":{"d":"987,-670r-883,0r0,-194r883,0r0,194xm987,-272r-883,0r0,-195r883,0r0,195"},">":{"d":"1997,-567r-803,800r-268,0r706,-702r-1526,0r0,-199r1526,0r-706,-702r268,0","w":2103},"?":{"d":"553,-1284v-124,2,-196,86,-199,207r-209,0v2,-192,107,-309,248,-365v159,-62,362,-6,450,77v88,83,161,264,95,413v-54,122,-155,237,-231,346v-29,41,-41,101,-37,172r-209,0v-4,-127,12,-199,69,-275r160,-215v43,-57,64,-108,64,-155v2,-115,-85,-207,-201,-205xm680,0r-231,0r0,-223r231,0r0,223","w":1047},"@":{"d":"903,-1464v309,2,473,165,473,479r0,989r-196,-4r0,-102v-64,72,-133,115,-260,116v-175,1,-316,-105,-344,-272v-33,-199,-31,-487,71,-598v59,-64,152,-117,271,-117v105,0,191,38,258,115r0,-125v3,-196,-105,-297,-293,-297v-181,0,-382,-23,-473,76v-54,60,-76,112,-76,221r0,639v2,126,27,162,102,225r-143,144v-111,-88,-162,-170,-162,-359r0,-651v-1,-309,162,-481,473,-479r299,0xm967,-164v174,0,207,-133,209,-315v2,-179,-37,-318,-209,-318v-175,0,-207,134,-207,318v0,178,34,315,207,315","w":1507},"A":{"d":"1264,0r-236,0r-100,-293r-576,0r-100,293r-236,0r535,-1458r178,0xm866,-481r-221,-647r-227,647r448,0","w":1280},"B":{"d":"1001,-750v122,47,222,167,220,338v-3,270,-174,412,-441,412r-590,0r0,-1458r568,0v263,3,440,139,440,399v0,155,-86,263,-197,309xm739,-842v140,1,240,-73,238,-209v-2,-139,-96,-208,-238,-209r-327,0r0,418r327,0xm760,-199v146,-2,239,-80,239,-223v0,-144,-94,-221,-239,-221r-348,0r0,444r348,0","w":1358},"C":{"d":"662,-186v172,0,261,-108,296,-250r224,0v-50,268,-213,448,-520,448v-246,0,-407,-132,-481,-304v-64,-149,-42,-433,-41,-648v1,-260,127,-414,312,-490v187,-77,420,-40,554,76v91,79,151,188,176,332r-226,0v-31,-142,-128,-250,-294,-250v-208,0,-298,143,-300,359v-2,178,-20,448,39,573v42,86,134,154,261,154","w":1286},"D":{"d":"1079,-1321v147,138,148,376,148,655v0,239,-28,410,-148,529v-91,91,-217,137,-377,137r-512,0r0,-1458r512,0v160,0,283,48,377,137xm993,-452v16,-195,50,-589,-65,-709v-62,-64,-143,-99,-248,-99r-268,0r0,1061r268,0v171,-1,299,-88,313,-253","w":1364},"E":{"d":"1122,0r-932,0r0,-1458r932,0r0,198r-710,0r0,426r606,0r0,197r-606,0r0,438r710,0r0,199","w":1235},"F":{"d":"1122,-1260r-710,0r0,445r606,0r0,199r-606,0r0,616r-222,0r0,-1458r932,0r0,198","w":1198},"G":{"d":"542,-210v226,84,444,-66,431,-308r0,-82r-311,0r0,-188r532,0v-1,159,8,346,-30,462v-77,236,-347,400,-646,320v-211,-56,-363,-208,-374,-458v-10,-218,-31,-584,54,-740v80,-149,265,-270,464,-266v309,7,481,189,530,452r-223,0v-35,-149,-128,-254,-307,-254v-159,0,-263,96,-286,236v-24,150,-40,562,25,696v27,55,78,107,141,130","w":1329},"H":{"d":"1225,0r-221,0r0,-637r-592,0r0,637r-222,0r0,-1458r222,0r0,622r592,0r0,-622r221,0r0,1458","w":1415},"I":{"d":"412,0r-222,0r0,-1458r222,0r0,1458","w":602},"J":{"d":"381,-186v176,0,263,-111,264,-291r0,-981r221,0r0,997v1,340,-271,527,-620,459v-95,-18,-157,-66,-219,-127r147,-145v62,56,97,88,207,88","w":1036},"K":{"d":"1327,0r-260,0r-410,-719r-245,295r0,424r-222,0r0,-1458r222,0r0,733r596,-733r270,0r-473,571","w":1348},"L":{"d":"1114,0r-924,0r0,-1458r222,0r0,1259r702,0r0,199","w":1176},"M":{"d":"1477,0r-222,0r0,-975r-335,711r-164,0r-344,-711r0,975r-222,0r0,-1458r222,0r426,907r417,-907r222,0r0,1458","w":1665},"N":{"d":"1288,0r-203,0r-673,-1026r0,1026r-222,0r0,-1458r203,0r674,1024r0,-1024r221,0r0,1458","w":1479},"O":{"d":"1180,-994v5,108,6,422,0,530v-15,290,-241,476,-518,476v-276,0,-507,-185,-518,-476v-8,-219,-31,-584,54,-740v80,-149,265,-270,464,-266v275,5,503,184,518,476xm934,-365v49,-135,32,-531,14,-671v-23,-178,-217,-286,-408,-212v-91,35,-150,109,-166,213v-23,151,-39,559,25,694v40,85,138,155,263,155v126,0,235,-75,272,-179","w":1323},"P":{"d":"1210,-1016v0,276,-187,443,-467,443r-331,0r0,573r-222,0r0,-1458r553,0v219,3,370,107,435,266v21,53,32,111,32,176xm731,-774v153,2,258,-91,258,-242v0,-152,-106,-244,-258,-244r-319,0r0,486r319,0","w":1288},"Q":{"d":"1186,-729v-1,246,1,392,-94,530r143,142r-123,123r-145,-146v-204,145,-523,113,-688,-63v-134,-142,-142,-300,-142,-586v0,-272,9,-451,142,-586v199,-203,572,-206,768,0v134,140,140,300,139,586xm922,-369v43,-99,43,-194,43,-360v0,-244,7,-340,-86,-453v-63,-77,-219,-118,-339,-66v-89,39,-150,109,-166,213v-23,151,-39,559,25,694v40,85,138,155,263,155v55,0,104,-16,149,-47r-154,-154r123,-123","w":1323},"R":{"d":"1208,-1032v3,205,-127,343,-290,387r335,645r-258,0r-307,-614r-276,0r0,614r-222,0r0,-1458r566,0v270,5,448,158,452,426xm739,-803v144,2,248,-85,248,-227v0,-144,-102,-230,-248,-230r-327,0r0,457r327,0","w":1341},"S":{"d":"592,-1278v-157,0,-264,77,-266,227v-3,259,368,191,548,269v138,60,230,182,228,366v-4,222,-138,345,-314,400v-149,46,-366,34,-500,-16v-82,-30,-158,-79,-227,-148r148,-146v86,89,202,140,373,140v170,0,301,-69,301,-224v0,-138,-81,-197,-217,-213v-173,-20,-354,-46,-449,-141v-68,-68,-106,-159,-106,-278v0,-280,198,-428,487,-428v213,0,336,57,453,165r-142,140v-76,-74,-172,-113,-317,-113","w":1208},"T":{"d":"1085,-1260r-401,0r0,1260r-221,0r0,-1260r-402,0r0,-198r1024,0r0,198","w":1147},"U":{"d":"690,-186v192,0,303,-121,303,-316r0,-956r221,0r0,966v-7,311,-212,504,-524,504v-311,0,-522,-193,-522,-504r0,-966r221,0r0,956v2,194,109,316,301,316","w":1382},"V":{"d":"1145,-1458r-483,1458r-173,0r-479,-1458r230,0r335,1061r336,-1061r234,0","w":1155},"W":{"d":"1761,-1458r-381,1458r-192,0r-297,-1022r-295,1022r-193,0r-380,-1458r233,0r254,1042r293,-1042r178,0r293,1042r254,-1042r233,0","w":1784},"X":{"d":"1163,0r-256,0r-317,-559r-316,559r-254,0r451,-748r-422,-710r254,0r287,522r289,-522r254,0r-422,710","w":1184},"Y":{"d":"1104,-1458r-436,858r0,600r-222,0r0,-600r-436,-858r242,0r305,641r305,-641r242,0","w":1114},"Z":{"d":"1032,0r-934,0r0,-190r674,-1070r-645,0r0,-198r905,0r0,180r-678,1079r678,0r0,199","w":1130},"[":{"d":"623,152r-447,0r0,-1762r447,0r0,187r-238,0r0,1388r238,0r0,187","w":711},"\\":{"d":"778,152r-200,0r-578,-1745r201,0","w":778},"]":{"d":"535,152r-447,0r0,-185r242,0r0,-1392r-242,0r0,-185r447,0r0,1762","w":711},"^":{"d":"1030,-821r-217,0r-229,-424r-230,424r-217,0r352,-652r191,0","w":1169},"_":{"d":"1169,352r-1169,0r0,-143r1169,0r0,143","w":1169},"`":{"d":"618,-1227r-157,0r-228,-332r232,0","w":1024},"a":{"d":"129,-901v92,-108,183,-150,373,-150v285,0,428,119,428,357r0,694r-205,0r0,-94v-74,72,-138,105,-276,106v-222,3,-361,-109,-361,-317v0,-203,146,-299,358,-299r275,0r0,-74v-2,-142,-77,-194,-227,-194v-125,0,-169,28,-228,100xm481,-162v158,1,241,-48,240,-213r0,-84r-244,0v-112,-1,-186,46,-186,150v0,98,63,147,190,147","w":1085},"b":{"d":"647,-1051v293,0,369,223,369,531v0,309,-75,532,-371,532v-136,0,-205,-40,-274,-123r0,111r-205,0r0,-1458r209,0r0,524v66,-78,140,-117,272,-117xm592,-174v188,0,215,-149,215,-346v0,-193,-28,-344,-215,-344v-187,0,-217,151,-217,344v0,194,30,346,217,346","w":1133},"c":{"d":"575,-174v100,0,142,-38,199,-98r144,137v-83,87,-179,150,-343,147v-302,-6,-464,-207,-462,-532v2,-325,152,-531,462,-531v167,0,255,52,343,146r-144,139v-58,-62,-96,-98,-199,-98v-175,0,-253,138,-253,344v0,215,74,346,253,346","w":993},"d":{"d":"485,-1051v132,0,206,38,273,117r0,-524r209,0r0,1458r-205,0r0,-111v-64,80,-138,123,-275,123v-294,0,-370,-224,-370,-532v0,-308,75,-531,368,-531xm543,-174v188,0,215,-149,215,-346v0,-193,-28,-344,-215,-344v-187,0,-217,151,-217,344v0,194,30,346,217,346","w":1133},"e":{"d":"553,-1051v321,0,460,242,440,592r-674,0v2,179,87,291,265,291v132,0,176,-36,252,-106r133,124v-108,104,-194,162,-389,162v-322,0,-468,-198,-467,-532v1,-312,141,-531,440,-531xm786,-604v-5,-159,-76,-273,-233,-273v-155,0,-232,106,-234,273r467,0","w":1104},"f":{"d":"199,-1180v5,-173,104,-287,284,-288r131,0r0,178r-92,0v-76,0,-114,40,-114,121r0,149r206,0r0,160r-206,0r0,860r-209,0r0,-860r-119,0r0,-160r119,0r0,-160","w":672},"g":{"d":"483,-1051v135,0,204,40,273,123r0,-110r202,0r0,1032v2,319,-252,490,-586,424v-94,-19,-160,-64,-225,-123r134,-133v67,58,113,90,225,92v161,4,243,-110,244,-264r0,-133v-66,78,-139,118,-269,118v-285,0,-364,-205,-364,-514v0,-307,76,-512,366,-512xm539,-213v183,0,211,-140,211,-326v0,-186,-28,-325,-211,-325v-185,0,-213,138,-213,325v0,188,28,326,213,326","w":1124},"h":{"d":"643,-1051v232,0,361,147,361,381r0,670r-209,0r0,-637v3,-142,-78,-227,-209,-227v-130,0,-211,87,-211,227r0,637r-209,0r0,-1458r209,0r0,524v71,-78,160,-117,268,-117","w":1159},"i":{"d":"381,-1243r-221,0r0,-221r221,0r0,221xm375,0r-209,0r0,-1038r209,0r0,1038","w":541},"j":{"d":"381,-1243r-221,0r0,-221r221,0r0,221xm53,246v83,0,112,-39,113,-121r0,-1163r209,0r0,1175v-1,172,-103,291,-285,287r-129,0r0,-178r92,0","w":541},"k":{"d":"1077,0r-258,0r-291,-479r-153,174r0,305r-209,0r0,-1458r209,0r0,899r403,-479r254,0r-360,407","w":1122},"l":{"d":"369,-299v1,83,28,121,112,121r92,0r0,178r-129,0v-180,4,-283,-117,-284,-287r0,-1171r209,0r0,1159","w":637},"m":{"d":"1268,-1051v231,0,372,157,372,387r0,664r-208,0r0,-633v3,-145,-76,-230,-209,-231v-124,-1,-215,89,-215,221r0,643r-209,0r0,-633v0,-143,-71,-231,-209,-231v-132,0,-215,89,-215,231r0,633r-209,0r0,-1038r205,0r0,104v61,-68,157,-116,276,-117v131,0,229,51,295,152v83,-101,192,-152,326,-152","w":1796},"n":{"d":"647,-1051v226,0,361,152,361,387r0,664r-209,0r0,-633v0,-143,-71,-231,-209,-231v-132,0,-215,89,-215,231r0,633r-209,0r0,-1038r205,0r0,104v60,-68,159,-117,276,-117","w":1163},"o":{"d":"956,-758v36,120,34,358,1,478v-46,167,-204,292,-408,292v-202,0,-359,-125,-405,-292v-34,-122,-36,-356,0,-478v51,-171,183,-293,405,-293v223,0,356,123,407,293xm549,-174v175,0,225,-148,225,-346v0,-199,-44,-344,-225,-344v-177,0,-228,146,-223,344v3,128,9,221,71,284v41,41,92,62,152,62","w":1100},"p":{"d":"645,-1051v295,0,371,223,371,531v0,308,-75,532,-369,532v-129,0,-208,-41,-272,-118r0,526r-209,0r0,-1458r205,0r0,110v69,-83,137,-123,274,-123xm592,-174v188,0,215,-149,215,-346v0,-193,-28,-344,-215,-344v-187,0,-217,151,-217,344v0,194,30,346,217,346","w":1133},"q":{"d":"487,-1051v137,0,206,40,275,123r0,-110r205,0r0,1458r-209,0r0,-526v-63,74,-140,120,-273,118v-292,-4,-368,-225,-368,-532v0,-309,76,-531,370,-531xm543,-174v188,0,215,-149,215,-346v0,-193,-28,-344,-215,-344v-187,0,-217,151,-217,344v0,194,30,346,217,346","w":1133},"r":{"d":"371,-926v64,-102,262,-159,411,-102v39,15,77,40,113,76r-158,157v-46,-44,-73,-69,-155,-69v-129,0,-207,98,-207,233r0,631r-209,0r0,-1038r205,0r0,112","w":899},"s":{"d":"506,-877v-108,0,-189,40,-189,134v0,70,48,108,144,118v116,12,246,14,331,57v88,45,142,124,142,251v0,290,-306,364,-600,316v-114,-19,-194,-64,-268,-136r137,-137v70,72,170,108,299,108v116,0,227,-32,227,-143v0,-75,-46,-116,-139,-123v-183,-13,-371,-24,-438,-150v-22,-42,-35,-91,-35,-151v-3,-203,182,-318,391,-318v167,0,296,39,385,117r-131,133v-61,-51,-146,-76,-256,-76","w":1022},"t":{"d":"475,0v-179,-2,-285,-115,-285,-289r0,-571r-118,0r0,-160r118,0r0,-315r209,0r0,315r201,0r0,160r-201,0r0,561v0,81,38,121,115,121r86,0r0,178r-125,0","w":700},"u":{"d":"573,-174v132,0,215,-89,215,-232r0,-632r209,0r0,1038r-204,0r0,-104v-62,67,-159,116,-277,116v-225,0,-360,-145,-360,-387r0,-663r209,0r0,632v-3,144,76,232,208,232","w":1163},"v":{"d":"948,-1038r-381,1038r-170,0r-381,-1038r222,0r245,731r244,-731r221,0","w":965},"w":{"d":"1505,-1038r-323,1038r-178,0r-244,-725r-242,725r-180,0r-322,-1038r222,0r200,731r242,-731r162,0r239,731r201,-731r223,0","w":1522},"x":{"d":"985,0r-252,0r-217,-354r-219,354r-252,0r356,-530r-342,-508r252,0r205,338r203,-338r252,0r-340,508","w":1030},"y":{"d":"950,-1038r-458,1245v-44,127,-130,205,-289,205r-84,0r0,-189v57,1,122,1,149,-23v56,-47,78,-171,111,-249r-363,-989r222,0r247,731r242,-731r223,0","w":958},"z":{"d":"862,0r-774,0r0,-166r516,-686r-487,0r0,-186r745,0r0,166r-520,686r520,0r0,186","w":961},"{":{"d":"512,-195v6,131,16,158,150,160r79,0r0,187r-145,0v-197,-2,-293,-91,-293,-285r0,-342v4,-135,-75,-174,-211,-162r0,-184v135,11,211,-27,211,-162r0,-342v0,-196,96,-283,293,-285r145,0r0,187r-79,0v-134,2,-150,28,-150,159r0,330v1,123,-53,165,-135,205v82,38,135,83,135,205r0,329","w":834},"|":{"d":"451,152r-209,0r0,-1762r209,0r0,1762","w":692},"}":{"d":"530,-983v-3,103,49,160,138,162r73,0r0,184v-135,-12,-211,29,-211,162r0,342v1,195,-95,283,-292,285r-146,0r0,-187r80,0v132,-2,150,-30,150,-160r0,-329v-1,-121,55,-168,137,-205v-83,-41,-138,-82,-137,-205r0,-330v-5,-129,-18,-157,-150,-159r-80,0r0,-187r146,0v197,2,293,89,292,285r0,342","w":834},"~":{"d":"700,-629v113,37,189,0,254,-76r133,132v-103,96,-150,152,-303,159v-140,7,-269,-116,-391,-116v-92,0,-110,30,-174,90r-131,-131v90,-82,148,-160,301,-160v130,0,206,67,311,102","w":1176},"\u00c4":{"d":"1264,0r-236,0r-100,-293r-576,0r-100,293r-236,0r535,-1458r178,0xm866,-481r-221,-647r-227,647r448,0xm950,-1610r-188,0r0,-221r188,0r0,221xm508,-1610r-188,0r0,-221r188,0r0,221","w":1280},"\u00c5":{"d":"635,-2048v148,0,256,108,256,256v0,148,-108,256,-256,256v-148,0,-256,-108,-256,-256v0,-148,108,-256,256,-256xm635,-1663v71,0,131,-59,131,-129v0,-71,-59,-129,-131,-129v-71,0,-131,59,-131,129v0,68,62,129,131,129xm1264,0r-236,0r-100,-293r-576,0r-100,293r-236,0r535,-1458r178,0xm866,-481r-221,-647r-227,647r448,0","w":1280},"\u00c7":{"d":"662,-186v172,0,261,-108,296,-250r224,0v-50,268,-213,448,-520,448v-246,0,-407,-132,-481,-304v-64,-149,-42,-433,-41,-648v1,-260,127,-414,312,-490v187,-77,420,-40,554,76v91,79,151,188,176,332r-226,0v-31,-142,-128,-250,-294,-250v-208,0,-298,143,-300,359v-2,178,-20,448,39,573v42,86,134,154,261,154xm766,131r-104,301r-207,0r143,-301r168,0","w":1286},"\u00c9":{"d":"1122,0r-932,0r0,-1458r932,0r0,198r-710,0r0,426r606,0r0,197r-606,0r0,438r710,0r0,199xm916,-1932r-228,332r-157,0r153,-332r232,0","w":1235},"\u00d1":{"d":"753,-1811v92,58,172,48,234,-24r98,96v-64,59,-107,107,-213,113v-104,6,-181,-88,-268,-86v-62,1,-75,20,-119,61r-98,-96v71,-67,109,-113,213,-113v46,0,98,15,153,49xm1288,0r-203,0r-673,-1026r0,1026r-222,0r0,-1458r203,0r674,1024r0,-1024r221,0r0,1458","w":1477},"\u00d6":{"d":"1180,-994v5,108,6,422,0,530v-15,290,-241,476,-518,476v-276,0,-507,-185,-518,-476v-8,-219,-31,-584,54,-740v80,-149,265,-270,464,-266v275,5,503,184,518,476xm934,-365v49,-135,32,-531,14,-671v-23,-178,-217,-286,-408,-212v-91,35,-150,109,-166,213v-23,151,-39,559,25,694v40,85,138,155,263,155v126,0,235,-75,272,-179xm977,-1610r-188,0r0,-221r188,0r0,221xm535,-1610r-188,0r0,-221r188,0r0,221","w":1325},"\u00dc":{"d":"690,-186v192,0,303,-121,303,-316r0,-956r221,0r0,966v-7,311,-212,504,-524,504v-311,0,-522,-193,-522,-504r0,-966r221,0r0,956v2,194,109,316,301,316xm1007,-1610r-188,0r0,-221r188,0r0,221xm565,-1610r-188,0r0,-221r188,0r0,221","w":1382},"\u00e1":{"d":"129,-901v92,-108,183,-150,373,-150v285,0,428,119,428,357r0,694r-205,0r0,-94v-74,72,-138,105,-276,106v-222,3,-361,-109,-361,-317v0,-203,146,-299,358,-299r275,0r0,-74v-2,-142,-77,-194,-227,-194v-125,0,-169,28,-228,100xm481,-162v158,1,241,-48,240,-213r0,-84r-244,0v-112,-1,-186,46,-186,150v0,98,63,147,190,147xm805,-1559r-228,332r-157,0r153,-332r232,0","w":1085},"\u00e0":{"d":"129,-901v92,-108,183,-150,373,-150v285,0,428,119,428,357r0,694r-205,0r0,-94v-74,72,-138,105,-276,106v-222,3,-361,-109,-361,-317v0,-203,146,-299,358,-299r275,0r0,-74v-2,-142,-77,-194,-227,-194v-125,0,-169,28,-228,100xm481,-162v158,1,241,-48,240,-213r0,-84r-244,0v-112,-1,-186,46,-186,150v0,98,63,147,190,147xm632,-1227r-157,0r-228,-332r232,0","w":1085},"\u00e2":{"d":"878,-1227r-174,0r-178,-198r-178,198r-174,0r264,-329r176,0xm129,-901v92,-108,183,-150,373,-150v285,0,428,119,428,357r0,694r-205,0r0,-94v-74,72,-138,105,-276,106v-222,3,-361,-109,-361,-317v0,-203,146,-299,358,-299r275,0r0,-74v-2,-142,-77,-194,-227,-194v-125,0,-169,28,-228,100xm481,-162v158,1,241,-48,240,-213r0,-84r-244,0v-112,-1,-186,46,-186,150v0,98,63,147,190,147","w":1085},"\u00e4":{"d":"129,-901v92,-108,183,-150,373,-150v285,0,428,119,428,357r0,694r-205,0r0,-94v-74,72,-138,105,-276,106v-222,3,-361,-109,-361,-317v0,-203,146,-299,358,-299r275,0r0,-74v-2,-142,-77,-194,-227,-194v-125,0,-169,28,-228,100xm481,-162v158,1,241,-48,240,-213r0,-84r-244,0v-112,-1,-186,46,-186,150v0,98,63,147,190,147xm841,-1237r-188,0r0,-221r188,0r0,221xm399,-1237r-188,0r0,-221r188,0r0,221","w":1085},"\u00e3":{"d":"540,-1438v92,58,172,48,234,-24r98,96v-64,59,-107,107,-213,113v-104,6,-181,-88,-268,-86v-62,1,-75,20,-119,61r-98,-96v71,-67,109,-113,213,-113v46,0,98,15,153,49xm129,-901v92,-108,183,-150,373,-150v285,0,428,119,428,357r0,694r-205,0r0,-94v-74,72,-138,105,-276,106v-222,3,-361,-109,-361,-317v0,-203,146,-299,358,-299r275,0r0,-74v-2,-142,-77,-194,-227,-194v-125,0,-169,28,-228,100xm481,-162v158,1,241,-48,240,-213r0,-84r-244,0v-112,-1,-186,46,-186,150v0,98,63,147,190,147","w":1085},"\u00e5":{"d":"526,-1692v148,0,256,108,256,256v0,148,-108,256,-256,256v-148,0,-256,-108,-256,-256v0,-148,108,-256,256,-256xm526,-1307v71,0,131,-59,131,-129v0,-71,-59,-129,-131,-129v-71,0,-131,59,-131,129v0,68,62,129,131,129xm129,-901v92,-108,183,-150,373,-150v285,0,428,119,428,357r0,694r-205,0r0,-94v-74,72,-138,105,-276,106v-222,3,-361,-109,-361,-317v0,-203,146,-299,358,-299r275,0r0,-74v-2,-142,-77,-194,-227,-194v-125,0,-169,28,-228,100xm481,-162v158,1,241,-48,240,-213r0,-84r-244,0v-112,-1,-186,46,-186,150v0,98,63,147,190,147","w":1085},"\u00e7":{"d":"575,-174v100,0,142,-38,199,-98r144,137v-83,87,-179,150,-343,147v-302,-6,-464,-207,-462,-532v2,-325,152,-531,462,-531v167,0,255,52,343,146r-144,139v-58,-62,-96,-98,-199,-98v-175,0,-253,138,-253,344v0,215,74,346,253,346xm653,131r-104,301r-207,0r143,-301r168,0","w":999},"\u00e9":{"d":"553,-1051v321,0,460,242,440,592r-674,0v2,179,87,291,265,291v132,0,176,-36,252,-106r133,124v-108,104,-194,162,-389,162v-322,0,-468,-198,-467,-532v1,-312,141,-531,440,-531xm786,-604v-5,-159,-76,-273,-233,-273v-155,0,-232,106,-234,273r467,0xm838,-1559r-228,332r-157,0r153,-332r232,0","w":1104},"\u00e8":{"d":"553,-1051v321,0,460,242,440,592r-674,0v2,179,87,291,265,291v132,0,176,-36,252,-106r133,124v-108,104,-194,162,-389,162v-322,0,-468,-198,-467,-532v1,-312,141,-531,440,-531xm786,-604v-5,-159,-76,-273,-233,-273v-155,0,-232,106,-234,273r467,0xm665,-1227r-157,0r-228,-332r232,0","w":1104},"\u00ea":{"d":"911,-1227r-174,0r-178,-198r-178,198r-174,0r264,-329r176,0xm553,-1051v321,0,460,242,440,592r-674,0v2,179,87,291,265,291v132,0,176,-36,252,-106r133,124v-108,104,-194,162,-389,162v-322,0,-468,-198,-467,-532v1,-312,141,-531,440,-531xm786,-604v-5,-159,-76,-273,-233,-273v-155,0,-232,106,-234,273r467,0","w":1104},"\u00eb":{"d":"553,-1051v321,0,460,242,440,592r-674,0v2,179,87,291,265,291v132,0,176,-36,252,-106r133,124v-108,104,-194,162,-389,162v-322,0,-468,-198,-467,-532v1,-312,141,-531,440,-531xm786,-604v-5,-159,-76,-273,-233,-273v-155,0,-232,106,-234,273r467,0xm874,-1237r-188,0r0,-221r188,0r0,221xm432,-1237r-188,0r0,-221r188,0r0,221","w":1104},"\u00ed":{"d":"375,0r-209,0r0,-1038r209,0r0,1038xm521,-1559r-228,332r-157,0r153,-332r232,0","w":541},"\u00ec":{"d":"375,0r-209,0r0,-1038r209,0r0,1038xm415,-1227r-157,0r-228,-332r232,0","w":541},"\u00ee":{"d":"375,0r-209,0r0,-1038r209,0r0,1038xm618,-1227r-174,0r-178,-198r-178,198r-174,0r264,-329r176,0","w":541},"\u00ef":{"d":"375,0r-209,0r0,-1038r209,0r0,1038xm581,-1237r-188,0r0,-221r188,0r0,221xm139,-1237r-188,0r0,-221r188,0r0,221","w":541},"\u00f1":{"d":"602,-1438v92,58,172,48,234,-24r98,96v-64,59,-107,107,-213,113v-104,6,-181,-88,-268,-86v-62,1,-75,20,-119,61r-98,-96v71,-67,109,-113,213,-113v46,0,98,15,153,49xm647,-1051v226,0,361,152,361,387r0,664r-209,0r0,-633v0,-143,-71,-231,-209,-231v-132,0,-215,89,-215,231r0,633r-209,0r0,-1038r205,0r0,104v60,-68,159,-117,276,-117","w":1163},"\u00f3":{"d":"956,-758v36,120,34,358,1,478v-46,167,-204,292,-408,292v-202,0,-359,-125,-405,-292v-34,-122,-36,-356,0,-478v51,-171,183,-293,405,-293v223,0,356,123,407,293xm549,-174v175,0,225,-148,225,-346v0,-199,-44,-344,-225,-344v-177,0,-228,146,-223,344v3,128,9,221,71,284v41,41,92,62,152,62xm828,-1559r-228,332r-157,0r153,-332r232,0","w":1100},"\u00f2":{"d":"956,-758v36,120,34,358,1,478v-46,167,-204,292,-408,292v-202,0,-359,-125,-405,-292v-34,-122,-36,-356,0,-478v51,-171,183,-293,405,-293v223,0,356,123,407,293xm549,-174v175,0,225,-148,225,-346v0,-199,-44,-344,-225,-344v-177,0,-228,146,-223,344v3,128,9,221,71,284v41,41,92,62,152,62xm641,-1227r-157,0r-228,-332r232,0","w":1100},"\u00f4":{"d":"901,-1227r-174,0r-178,-198r-178,198r-174,0r264,-329r176,0xm956,-758v36,120,34,358,1,478v-46,167,-204,292,-408,292v-202,0,-359,-125,-405,-292v-34,-122,-36,-356,0,-478v51,-171,183,-293,405,-293v223,0,356,123,407,293xm549,-174v175,0,225,-148,225,-346v0,-199,-44,-344,-225,-344v-177,0,-228,146,-223,344v3,128,9,221,71,284v41,41,92,62,152,62","w":1100},"\u00f6":{"d":"956,-758v36,120,34,358,1,478v-46,167,-204,292,-408,292v-202,0,-359,-125,-405,-292v-34,-122,-36,-356,0,-478v51,-171,183,-293,405,-293v223,0,356,123,407,293xm549,-174v175,0,225,-148,225,-346v0,-199,-44,-344,-225,-344v-177,0,-228,146,-223,344v3,128,9,221,71,284v41,41,92,62,152,62xm864,-1237r-188,0r0,-221r188,0r0,221xm422,-1237r-188,0r0,-221r188,0r0,221","w":1100},"\u00f5":{"d":"563,-1438v92,58,172,48,234,-24r98,96v-64,59,-107,107,-213,113v-104,6,-181,-88,-268,-86v-62,1,-75,20,-119,61r-98,-96v71,-67,109,-113,213,-113v46,0,98,15,153,49xm956,-758v36,120,34,358,1,478v-46,167,-204,292,-408,292v-202,0,-359,-125,-405,-292v-34,-122,-36,-356,0,-478v51,-171,183,-293,405,-293v223,0,356,123,407,293xm549,-174v175,0,225,-148,225,-346v0,-199,-44,-344,-225,-344v-177,0,-228,146,-223,344v3,128,9,221,71,284v41,41,92,62,152,62","w":1100},"\u00fa":{"d":"573,-174v132,0,215,-89,215,-232r0,-632r209,0r0,1038r-204,0r0,-104v-62,67,-159,116,-277,116v-225,0,-360,-145,-360,-387r0,-663r209,0r0,632v-3,144,76,232,208,232xm854,-1559r-228,332r-157,0r153,-332r232,0","w":1163},"\u00f9":{"d":"573,-174v132,0,215,-89,215,-232r0,-632r209,0r0,1038r-204,0r0,-104v-62,67,-159,116,-277,116v-225,0,-360,-145,-360,-387r0,-663r209,0r0,632v-3,144,76,232,208,232xm681,-1227r-157,0r-228,-332r232,0","w":1163},"\u00fb":{"d":"927,-1227r-174,0r-178,-198r-178,198r-174,0r264,-329r176,0xm573,-174v132,0,215,-89,215,-232r0,-632r209,0r0,1038r-204,0r0,-104v-62,67,-159,116,-277,116v-225,0,-360,-145,-360,-387r0,-663r209,0r0,632v-3,144,76,232,208,232","w":1163},"\u00fc":{"d":"573,-174v132,0,215,-89,215,-232r0,-632r209,0r0,1038r-204,0r0,-104v-62,67,-159,116,-277,116v-225,0,-360,-145,-360,-387r0,-663r209,0r0,632v-3,144,76,232,208,232xm890,-1237r-188,0r0,-221r188,0r0,221xm448,-1237r-188,0r0,-221r188,0r0,221","w":1163},"\u00b0":{"d":"152,-988v-96,-248,80,-500,329,-495v207,4,359,152,359,359v0,249,-247,424,-496,329v-85,-32,-159,-108,-192,-193xm481,-936v101,0,187,-85,187,-188v0,-103,-85,-191,-187,-191v-102,0,-184,88,-184,191v0,102,83,188,184,188","w":965},"\u00a2":{"d":"633,-414v76,-12,121,-48,168,-98r139,135v-79,83,-158,132,-289,152r0,225r-164,0r0,-227v-241,-43,-374,-236,-374,-523v0,-288,134,-477,374,-522r0,-186r164,0r0,184v134,17,209,67,289,152r-139,135v-49,-56,-105,-89,-168,-98r0,671xm506,-1081v-125,32,-184,161,-184,331v0,173,55,299,184,332r0,-663","w":1020},"\u00a3":{"d":"702,-1272v-175,0,-263,112,-264,291r0,180r264,0r0,160r-264,0r0,442r619,0r0,199r-842,0r0,-641r-127,0r0,-160r127,0r0,-196v4,-298,195,-473,487,-473v170,0,263,49,355,141r-148,145v-57,-57,-98,-88,-207,-88","w":1155},"\u00a7":{"d":"559,-1288v-109,-1,-180,53,-180,158v0,79,51,134,153,165r144,43v194,60,291,187,291,381v0,151,-99,268,-199,320v106,47,182,137,180,289v-3,229,-163,361,-391,364v-218,3,-396,-128,-397,-348r205,0v7,101,82,162,192,162v111,0,189,-64,186,-172v-2,-99,-68,-152,-159,-180r-144,-44v-192,-58,-288,-185,-288,-380v0,-149,99,-271,198,-320v-104,-53,-172,-124,-172,-274v0,-219,155,-346,381,-346v228,0,375,120,385,337r-201,0v-7,-103,-69,-155,-184,-155xm559,-315v125,0,203,-99,203,-220v0,-131,-86,-219,-203,-221v-125,-1,-203,94,-203,221v0,125,79,220,203,220","w":1112},"\u00b6":{"d":"78,-1051v0,-265,191,-407,461,-407r575,0r0,1878r-209,0r0,-1680r-221,0r0,1680r-209,0r0,-1069v-188,-5,-308,-113,-367,-251v-21,-49,-30,-100,-30,-151","w":1305},"\u00df":{"d":"897,-885v88,47,128,104,129,236r0,338v3,202,-121,311,-317,311r-109,0r0,-178v132,8,215,-23,215,-152r0,-319v3,-126,-85,-158,-215,-148r0,-166v129,13,217,-35,215,-153v-2,-115,-83,-172,-217,-172v-147,0,-221,77,-221,231r0,1057r-211,0r0,-1069v2,-268,170,-404,438,-404v245,0,420,108,420,351v0,104,-42,183,-127,237","w":1157},"\u00ae":{"d":"1566,-1015v77,181,77,391,0,572v-111,256,-336,455,-683,455v-346,0,-574,-201,-684,-455v-77,-181,-78,-392,0,-572v111,-256,337,-455,684,-455v345,0,573,200,683,455xm1396,-425v103,-182,103,-426,0,-608v-94,-166,-273,-300,-513,-300v-283,0,-463,162,-549,370v-73,175,-55,384,34,539v94,165,274,299,515,299v239,0,420,-135,513,-300xm1184,-885v3,113,-70,188,-158,217r178,338r-166,0r-164,-317r-102,0r0,317r-147,0r0,-800r301,0v150,3,254,99,258,245xm907,-764v73,2,131,-51,131,-121v0,-70,-58,-121,-131,-121r-135,0r0,242r135,0","w":1765},"\u00a9":{"d":"1566,-1015v77,181,77,391,0,572v-111,256,-336,455,-683,455v-346,0,-574,-201,-684,-455v-77,-181,-78,-392,0,-572v111,-256,337,-455,684,-455v345,0,573,200,683,455xm1396,-424v104,-183,104,-427,0,-610v-94,-166,-274,-297,-513,-297v-239,0,-419,133,-513,298v-103,182,-103,426,0,608v94,166,273,298,513,298v238,0,419,-132,513,-297xm895,-451v85,-1,120,-26,174,-71r94,96v-77,67,-138,107,-268,107v-236,0,-367,-167,-367,-410v0,-247,125,-410,367,-410v130,0,189,41,268,107r-94,96v-53,-47,-89,-71,-174,-72v-155,-2,-221,119,-221,279v0,160,66,280,221,278","w":1765},"\u00b4":{"d":"791,-1559r-228,332r-157,0r153,-332r232,0","w":1024},"\u00a8":{"d":"827,-1237r-188,0r0,-221r188,0r0,221xm385,-1237r-188,0r0,-221r188,0r0,221","w":1024},"\u00c6":{"d":"1837,0r-932,0r0,-332r-481,0r-172,332r-242,0r766,-1458r1061,0r0,198r-711,0r0,429r607,0r0,198r-607,0r0,434r711,0r0,199xm905,-520r0,-740r-385,740r385,0","w":1950},"\u00d8":{"d":"291,-131v-144,-139,-154,-302,-154,-598v0,-272,9,-451,142,-586v154,-156,411,-202,628,-100r62,-133r170,0r-107,221v148,134,154,305,154,598v0,286,-3,443,-139,586v-151,159,-411,202,-629,100r-64,133r-168,0xm825,-1227v-119,-80,-308,-44,-379,45v-92,115,-86,208,-86,453v0,180,0,283,41,389xm934,-365v47,-130,33,-460,22,-619v-4,-57,-16,-102,-32,-134r-424,887v119,75,292,54,379,-45v23,-27,43,-56,55,-89","w":1335},"\u00b1":{"d":"987,-647r-344,0r0,346r-194,0r0,-346r-345,0r0,-195r345,0r0,-344r194,0r0,344r344,0r0,195xm987,0r-883,0r0,-195r883,0r0,195"},"\u00a5":{"d":"1102,-1458r-299,594r178,0r0,159r-260,0r-53,105r0,106r313,0r0,160r-313,0r0,334r-222,0r0,-334r-313,0r0,-160r313,0r0,-106r-53,-105r-260,0r0,-159r178,0r-301,-594r242,0r307,643r303,-643r240,0","w":1114},"\u00b5":{"d":"575,-174v132,0,213,-89,213,-232r0,-632r209,0r0,1038r-204,0r0,-104v-72,77,-164,116,-275,116v-63,0,-114,-17,-153,-51r0,459r-209,0r0,-1458r209,0r0,632v-3,143,79,232,210,232","w":1165},"\u00aa":{"d":"436,-1466v212,-1,340,84,340,284r0,553r-166,0r0,-73v-58,57,-110,80,-217,81v-177,3,-287,-84,-287,-251v0,-154,118,-240,285,-240r215,0v10,-143,-36,-213,-178,-209v-100,2,-129,22,-178,80r-113,-107v75,-87,145,-116,299,-118xm418,-764v127,0,187,-32,188,-164r0,-65r-190,0v-88,0,-143,34,-144,116v0,75,49,113,146,113","w":926},"\u00ba":{"d":"125,-1044v0,-258,114,-416,344,-422v162,-4,290,101,326,231v13,49,20,113,20,191v0,260,-114,423,-346,423v-230,0,-344,-165,-344,-423xm469,-772v140,0,180,-110,174,-272v-4,-108,-2,-173,-53,-224v-32,-32,-73,-47,-121,-47v-136,0,-174,113,-174,271v0,157,36,272,174,272","w":938},"\u00e6":{"d":"1161,-1051v320,0,461,242,441,592r-674,0v-1,176,90,292,264,291v132,-2,176,-36,252,-106r133,124v-108,104,-194,162,-389,162v-165,0,-287,-54,-367,-162v-87,111,-184,160,-372,162v-224,3,-361,-109,-361,-317v0,-203,146,-299,358,-299r275,0r0,-74v-2,-142,-77,-194,-227,-194v-125,0,-169,28,-228,100r-137,-129v92,-108,183,-149,373,-150v163,-1,288,44,352,138v75,-92,177,-138,307,-138xm1395,-604v-4,-166,-76,-273,-234,-273v-156,0,-229,112,-233,273r467,0xm481,-162v158,1,241,-48,240,-213r0,-84r-244,0v-112,-1,-186,46,-186,150v0,98,63,147,190,147","w":1714},"\u00f8":{"d":"860,-928v95,99,123,216,123,408v0,194,-29,307,-123,409v-117,128,-355,162,-524,72r-76,129r-141,0r119,-203v-90,-95,-121,-220,-121,-407v0,-283,89,-452,307,-514v117,-33,246,-18,340,35r76,-129r141,0xm549,-864v-177,0,-223,146,-223,344v0,102,10,176,30,223r316,-532v-35,-23,-76,-35,-123,-35xm549,-174v175,0,225,-148,225,-346v0,-102,-10,-176,-31,-223r-315,532v35,25,76,37,121,37","w":1100},"\u00bf":{"d":"596,-815r-229,0r0,-223r229,0r0,223xm492,244v124,-2,196,-83,200,-205r209,0v-6,239,-169,393,-409,393v-240,0,-408,-149,-408,-393v0,-79,32,-163,96,-252r160,-221v29,-40,42,-102,37,-172r209,0v5,127,-16,199,-72,276r-158,215v-42,55,-63,107,-63,156v-2,114,84,206,199,203","w":1047},"\u00a1":{"d":"420,-815r-230,0r0,-223r230,0r0,223xm432,420r-254,0r45,-1024r164,0","w":680},"\u00ac":{"d":"991,-201r-194,0r0,-288r-699,0r0,-195r893,0r0,483"},"\u00ab":{"d":"1065,-86r-471,-471r471,-469r0,252r-221,217r221,219r0,252xm547,-86r-471,-471r471,-469r0,252r-219,217r219,219r0,252","w":1212},"\u00bb":{"d":"1139,-557r-473,471r0,-252r219,-219r-219,-217r0,-252xm621,-557r-474,471r0,-252r222,-219r-222,-217r0,-252","w":1212},"\u00a0":{"w":492},"\u00c0":{"d":"1264,0r-236,0r-100,-293r-576,0r-100,293r-236,0r535,-1458r178,0xm866,-481r-221,-647r-227,647r448,0xm739,-1600r-157,0r-228,-332r232,0","w":1280},"\u00c3":{"d":"647,-1811v92,58,172,48,234,-24r98,96v-64,59,-107,107,-213,113v-104,6,-181,-88,-268,-86v-62,1,-75,20,-119,61r-98,-96v71,-67,109,-113,213,-113v46,0,98,15,153,49xm1264,0r-236,0r-100,-293r-576,0r-100,293r-236,0r535,-1458r178,0xm866,-481r-221,-647r-227,647r448,0","w":1280},"\u00d5":{"d":"676,-1811v92,58,172,48,234,-24r98,96v-64,59,-107,107,-213,113v-104,6,-181,-88,-268,-86v-62,1,-75,20,-119,61r-98,-96v71,-67,109,-113,213,-113v46,0,98,15,153,49xm1180,-994v5,108,6,422,0,530v-15,290,-241,476,-518,476v-276,0,-507,-185,-518,-476v-8,-219,-31,-584,54,-740v80,-149,265,-270,464,-266v275,5,503,184,518,476xm934,-365v49,-135,32,-531,14,-671v-23,-178,-217,-286,-408,-212v-91,35,-150,109,-166,213v-23,151,-39,559,25,694v40,85,138,155,263,155v126,0,235,-75,272,-179","w":1325},"\u00f7":{"d":"657,-848r-223,0r0,-223r223,0r0,223xm991,-471r-893,0r0,-195r893,0r0,195xm657,-68r-223,0r0,-223r223,0r0,223"},"\u00ff":{"d":"950,-1038r-458,1245v-44,127,-130,205,-289,205r-84,0r0,-189v57,1,122,1,149,-23v56,-47,78,-171,111,-249r-363,-989r222,0r247,731r242,-731r223,0xm794,-1237r-188,0r0,-221r188,0r0,221xm352,-1237r-188,0r0,-221r188,0r0,221","w":958},"\u00a4":{"d":"1223,-166r-138,137r-151,-151v-149,104,-359,104,-508,0r-150,151r-137,-137r150,-151v-104,-148,-104,-361,0,-508r-150,-150r137,-137r150,149v141,-100,367,-100,508,0r151,-149r138,137r-152,150v104,147,104,360,0,508xm573,-314v194,76,388,-62,385,-257v-3,-161,-117,-272,-278,-277v-186,-5,-339,191,-258,383v28,68,83,124,151,151","w":1362},"\u00c2":{"d":"987,-1600r-174,0r-178,-198r-178,198r-174,0r264,-329r176,0xm1264,0r-236,0r-100,-293r-576,0r-100,293r-236,0r535,-1458r178,0xm866,-481r-221,-647r-227,647r448,0","w":1280},"\u00ca":{"d":"989,-1600r-174,0r-178,-198r-178,198r-174,0r264,-329r176,0xm1122,0r-932,0r0,-1458r932,0r0,198r-710,0r0,426r606,0r0,197r-606,0r0,438r710,0r0,199","w":1235},"\u00c1":{"d":"1264,0r-236,0r-100,-293r-576,0r-100,293r-236,0r535,-1458r178,0xm866,-481r-221,-647r-227,647r448,0xm914,-1932r-228,332r-157,0r153,-332r232,0","w":1280},"\u00cb":{"d":"1122,0r-932,0r0,-1458r932,0r0,198r-710,0r0,426r606,0r0,197r-606,0r0,438r710,0r0,199xm952,-1610r-188,0r0,-221r188,0r0,221xm510,-1610r-188,0r0,-221r188,0r0,221","w":1235},"\u00c8":{"d":"1122,0r-932,0r0,-1458r932,0r0,198r-710,0r0,426r606,0r0,197r-606,0r0,438r710,0r0,199xm743,-1600r-157,0r-228,-332r232,0","w":1235},"\u00cd":{"d":"412,0r-222,0r0,-1458r222,0r0,1458xm549,-1932r-228,332r-157,0r153,-332r232,0","w":602},"\u00ce":{"d":"643,-1600r-174,0r-178,-198r-178,198r-174,0r264,-329r176,0xm412,0r-222,0r0,-1458r222,0r0,1458","w":602},"\u00cf":{"d":"412,0r-222,0r0,-1458r222,0r0,1458xm612,-1610r-188,0r0,-221r188,0r0,221xm170,-1610r-188,0r0,-221r188,0r0,221","w":602},"\u00cc":{"d":"412,0r-222,0r0,-1458r222,0r0,1458xm440,-1600r-157,0r-228,-332r232,0","w":602},"\u00d3":{"d":"1180,-994v5,108,6,422,0,530v-15,290,-241,476,-518,476v-276,0,-507,-185,-518,-476v-8,-219,-31,-584,54,-740v80,-149,265,-270,464,-266v275,5,503,184,518,476xm934,-365v49,-135,32,-531,14,-671v-23,-178,-217,-286,-408,-212v-91,35,-150,109,-166,213v-23,151,-39,559,25,694v40,85,138,155,263,155v126,0,235,-75,272,-179xm941,-1932r-228,332r-157,0r153,-332r232,0","w":1325},"\u00d4":{"d":"1014,-1600r-174,0r-178,-198r-178,198r-174,0r264,-329r176,0xm1180,-994v5,108,6,422,0,530v-15,290,-241,476,-518,476v-276,0,-507,-185,-518,-476v-8,-219,-31,-584,54,-740v80,-149,265,-270,464,-266v275,5,503,184,518,476xm934,-365v49,-135,32,-531,14,-671v-23,-178,-217,-286,-408,-212v-91,35,-150,109,-166,213v-23,151,-39,559,25,694v40,85,138,155,263,155v126,0,235,-75,272,-179","w":1325},"\u00d2":{"d":"1180,-994v5,108,6,422,0,530v-15,290,-241,476,-518,476v-276,0,-507,-185,-518,-476v-8,-219,-31,-584,54,-740v80,-149,265,-270,464,-266v275,5,503,184,518,476xm934,-365v49,-135,32,-531,14,-671v-23,-178,-217,-286,-408,-212v-91,35,-150,109,-166,213v-23,151,-39,559,25,694v40,85,138,155,263,155v126,0,235,-75,272,-179xm768,-1600r-157,0r-228,-332r232,0","w":1325},"\u00da":{"d":"690,-186v192,0,303,-121,303,-316r0,-956r221,0r0,966v-7,311,-212,504,-524,504v-311,0,-522,-193,-522,-504r0,-966r221,0r0,956v2,194,109,316,301,316xm971,-1932r-228,332r-157,0r153,-332r232,0","w":1382},"\u00db":{"d":"1044,-1600r-174,0r-178,-198r-178,198r-174,0r264,-329r176,0xm690,-186v192,0,303,-121,303,-316r0,-956r221,0r0,966v-7,311,-212,504,-524,504v-311,0,-522,-193,-522,-504r0,-966r221,0r0,956v2,194,109,316,301,316","w":1382},"\u00d9":{"d":"690,-186v192,0,303,-121,303,-316r0,-956r221,0r0,966v-7,311,-212,504,-524,504v-311,0,-522,-193,-522,-504r0,-966r221,0r0,956v2,194,109,316,301,316xm798,-1600r-157,0r-228,-332r232,0","w":1382},"\u00af":{"d":"829,-1274r-634,0r0,-149r634,0r0,149","w":1024},"\u00b8":{"d":"653,131r-104,301r-207,0r143,-301r168,0","w":1024}}});
